Language model created by QuickLM on Wed Jul 22 19:17:07 EDT 2015
Copyright (c) 1996-2010 Carnegie Mellon University and Alexander I. Rudnicky

The model is in standard ARPA format, designed by Doug Paul while he was at MITRE.

The code that was used to produce this language model is available in Open Source.
Please visit http://www.speech.cs.cmu.edu/tools/ for more information

The (fixed) discount mass is 0.5. The backoffs are computed using the ratio method.
This model based on a corpus of 21 sentences and 23 words

\data\
ngram 1=23
ngram 2=42
ngram 3=21

\1-grams:
-0.7782 </s> -0.3010
-0.7782 <s> -0.2218
-2.1004 ALMOST -0.2218
-2.1004 CIRCLE -0.2218
-2.1004 FIVE -0.2218
-2.1004 FIVE-PEOPLE-PLEASE -0.2218
-2.1004 FOUR -0.2218
-2.1004 FOUR-PEOPLE-PLEASE -0.2218
-2.1004 NO -0.2218
-2.1004 NO-THANK-YOU -0.2218
-2.1004 ONE -0.2218
-2.1004 ONE-PERSON-PLEASE -0.2218
-2.1004 SALAD -0.2218
-2.1004 SIX -0.2218
-2.1004 SIX-PEOPLE-PLEASE -0.2218
-2.1004 SOUP -0.2218
-2.1004 SQUARE -0.2218
-2.1004 THREE -0.2218
-2.1004 THREE-PEOPLE-PLEASE -0.2218
-2.1004 TWO -0.2218
-2.1004 TWO-PEOPLE-PLEASE -0.2218
-2.1004 YES -0.2218
-2.1004 YES-PLEASE -0.2218

\2-grams:
-1.6232 <s> ALMOST 0.0000
-1.6232 <s> CIRCLE 0.0000
-1.6232 <s> FIVE 0.0000
-1.6232 <s> FIVE-PEOPLE-PLEASE 0.0000
-1.6232 <s> FOUR 0.0000
-1.6232 <s> FOUR-PEOPLE-PLEASE 0.0000
-1.6232 <s> NO 0.0000
-1.6232 <s> NO-THANK-YOU 0.0000
-1.6232 <s> ONE 0.0000
-1.6232 <s> ONE-PERSON-PLEASE 0.0000
-1.6232 <s> SALAD 0.0000
-1.6232 <s> SIX 0.0000
-1.6232 <s> SIX-PEOPLE-PLEASE 0.0000
-1.6232 <s> SOUP 0.0000
-1.6232 <s> SQUARE 0.0000
-1.6232 <s> THREE 0.0000
-1.6232 <s> THREE-PEOPLE-PLEASE 0.0000
-1.6232 <s> TWO 0.0000
-1.6232 <s> TWO-PEOPLE-PLEASE 0.0000
-1.6232 <s> YES 0.0000
-1.6232 <s> YES-PLEASE 0.0000
-0.3010 ALMOST </s> -0.3010
-0.3010 CIRCLE </s> -0.3010
-0.3010 FIVE </s> -0.3010
-0.3010 FIVE-PEOPLE-PLEASE </s> -0.3010
-0.3010 FOUR </s> -0.3010
-0.3010 FOUR-PEOPLE-PLEASE </s> -0.3010
-0.3010 NO </s> -0.3010
-0.3010 NO-THANK-YOU </s> -0.3010
-0.3010 ONE </s> -0.3010
-0.3010 ONE-PERSON-PLEASE </s> -0.3010
-0.3010 SALAD </s> -0.3010
-0.3010 SIX </s> -0.3010
-0.3010 SIX-PEOPLE-PLEASE </s> -0.3010
-0.3010 SOUP </s> -0.3010
-0.3010 SQUARE </s> -0.3010
-0.3010 THREE </s> -0.3010
-0.3010 THREE-PEOPLE-PLEASE </s> -0.3010
-0.3010 TWO </s> -0.3010
-0.3010 TWO-PEOPLE-PLEASE </s> -0.3010
-0.3010 YES </s> -0.3010
-0.3010 YES-PLEASE </s> -0.3010

\3-grams:
-0.3010 <s> ALMOST </s>
-0.3010 <s> CIRCLE </s>
-0.3010 <s> FIVE </s>
-0.3010 <s> FIVE-PEOPLE-PLEASE </s>
-0.3010 <s> FOUR </s>
-0.3010 <s> FOUR-PEOPLE-PLEASE </s>
-0.3010 <s> NO </s>
-0.3010 <s> NO-THANK-YOU </s>
-0.3010 <s> ONE </s>
-0.3010 <s> ONE-PERSON-PLEASE </s>
-0.3010 <s> SALAD </s>
-0.3010 <s> SIX </s>
-0.3010 <s> SIX-PEOPLE-PLEASE </s>
-0.3010 <s> SOUP </s>
-0.3010 <s> SQUARE </s>
-0.3010 <s> THREE </s>
-0.3010 <s> THREE-PEOPLE-PLEASE </s>
-0.3010 <s> TWO </s>
-0.3010 <s> TWO-PEOPLE-PLEASE </s>
-0.3010 <s> YES </s>
-0.3010 <s> YES-PLEASE </s>

\end\
