Language model created by QuickLM on Tue Jul 21 19:36:18 EDT 2015
Copyright (c) 1996-2010 Carnegie Mellon University and Alexander I. Rudnicky

The model is in standard ARPA format, designed by Doug Paul while he was at MITRE.

The code that was used to produce this language model is available in Open Source.
Please visit http://www.speech.cs.cmu.edu/tools/ for more information

The (fixed) discount mass is 0.5. The backoffs are computed using the ratio method.
This model based on a corpus of 11 sentences and 13 words

\data\
ngram 1=13
ngram 2=22
ngram 3=11

\1-grams:
-0.7782 </s> -0.3010
-0.7782 <s> -0.2218
-1.8195 ALMOST -0.2218
-1.8195 FIVE-PEOPLE-PLEASE -0.2218
-1.8195 FOUR-PEOPLE-PLEASE -0.2218
-1.8195 NO -0.2218
-1.8195 NO-THANK-YOU -0.2218
-1.8195 ONE-PERSON-PLEASE -0.2218
-1.8195 SIX-PEOPLE-PLEASE -0.2218
-1.8195 THREE-PEOPLE-PLEASE -0.2218
-1.8195 TWO-PEOPLE-PLEASE -0.2218
-1.8195 YES -0.2218
-1.8195 YES-PLEASE -0.2218

\2-grams:
-1.3424 <s> ALMOST 0.0000
-1.3424 <s> FIVE-PEOPLE-PLEASE 0.0000
-1.3424 <s> FOUR-PEOPLE-PLEASE 0.0000
-1.3424 <s> NO 0.0000
-1.3424 <s> NO-THANK-YOU 0.0000
-1.3424 <s> ONE-PERSON-PLEASE 0.0000
-1.3424 <s> SIX-PEOPLE-PLEASE 0.0000
-1.3424 <s> THREE-PEOPLE-PLEASE 0.0000
-1.3424 <s> TWO-PEOPLE-PLEASE 0.0000
-1.3424 <s> YES 0.0000
-1.3424 <s> YES-PLEASE 0.0000
-0.3010 ALMOST </s> -0.3010
-0.3010 FIVE-PEOPLE-PLEASE </s> -0.3010
-0.3010 FOUR-PEOPLE-PLEASE </s> -0.3010
-0.3010 NO </s> -0.3010
-0.3010 NO-THANK-YOU </s> -0.3010
-0.3010 ONE-PERSON-PLEASE </s> -0.3010
-0.3010 SIX-PEOPLE-PLEASE </s> -0.3010
-0.3010 THREE-PEOPLE-PLEASE </s> -0.3010
-0.3010 TWO-PEOPLE-PLEASE </s> -0.3010
-0.3010 YES </s> -0.3010
-0.3010 YES-PLEASE </s> -0.3010

\3-grams:
-0.3010 <s> ALMOST </s>
-0.3010 <s> FIVE-PEOPLE-PLEASE </s>
-0.3010 <s> FOUR-PEOPLE-PLEASE </s>
-0.3010 <s> NO </s>
-0.3010 <s> NO-THANK-YOU </s>
-0.3010 <s> ONE-PERSON-PLEASE </s>
-0.3010 <s> SIX-PEOPLE-PLEASE </s>
-0.3010 <s> THREE-PEOPLE-PLEASE </s>
-0.3010 <s> TWO-PEOPLE-PLEASE </s>
-0.3010 <s> YES </s>
-0.3010 <s> YES-PLEASE </s>

\end\
