Language model created by QuickLM on Thu Jul 23 11:43:25 EDT 2015
Copyright (c) 1996-2010 Carnegie Mellon University and Alexander I. Rudnicky

The model is in standard ARPA format, designed by Doug Paul while he was at MITRE.

The code that was used to produce this language model is available in Open Source.
Please visit http://www.speech.cs.cmu.edu/tools/ for more information

The (fixed) discount mass is 0.5. The backoffs are computed using the ratio method.
This model based on a corpus of 29 sentences and 31 words

\data\
ngram 1=31
ngram 2=58
ngram 3=29

\1-grams:
-0.7782 </s> -0.3010
-0.7782 <s> -0.2218
-2.2405 ALMOST -0.2218
-2.2405 CANCEL -0.2218
-2.2405 CHOCOLATE-HAZELNUT -0.2218
-2.2405 CREME-BRULEE -0.2218
-2.2405 CREOLE-REMOULADE -0.2218
-2.2405 DARK-ROUX -0.2218
-2.2405 FIVE -0.2218
-2.2405 FIVE-PEOPLE-PLEASE -0.2218
-2.2405 FOUR -0.2218
-2.2405 FOUR-PEOPLE-PLEASE -0.2218
-2.2405 HAMBURGER -0.2218
-2.2405 NO -0.2218
-2.2405 NO-THANK-YOU -0.2218
-2.2405 NOT-YET -0.2218
-2.2405 ONE -0.2218
-2.2405 ONE-PERSON-PLEASE -0.2218
-2.2405 OTHER -0.2218
-2.2405 SALAD -0.2218
-2.2405 SANDWICH -0.2218
-2.2405 SIX -0.2218
-2.2405 SIX-PEOPLE-PLEASE -0.2218
-2.2405 SOUP -0.2218
-2.2405 SPAGHETTI -0.2218
-2.2405 THREE -0.2218
-2.2405 THREE-PEOPLE-PLEASE -0.2218
-2.2405 TWO -0.2218
-2.2405 TWO-PEOPLE-PLEASE -0.2218
-2.2405 YES -0.2218
-2.2405 YES-PLEASE -0.2218

\2-grams:
-1.7634 <s> ALMOST 0.0000
-1.7634 <s> CANCEL 0.0000
-1.7634 <s> CHOCOLATE-HAZELNUT 0.0000
-1.7634 <s> CREME-BRULEE 0.0000
-1.7634 <s> CREOLE-REMOULADE 0.0000
-1.7634 <s> DARK-ROUX 0.0000
-1.7634 <s> FIVE 0.0000
-1.7634 <s> FIVE-PEOPLE-PLEASE 0.0000
-1.7634 <s> FOUR 0.0000
-1.7634 <s> FOUR-PEOPLE-PLEASE 0.0000
-1.7634 <s> HAMBURGER 0.0000
-1.7634 <s> NO 0.0000
-1.7634 <s> NO-THANK-YOU 0.0000
-1.7634 <s> NOT-YET 0.0000
-1.7634 <s> ONE 0.0000
-1.7634 <s> ONE-PERSON-PLEASE 0.0000
-1.7634 <s> OTHER 0.0000
-1.7634 <s> SALAD 0.0000
-1.7634 <s> SANDWICH 0.0000
-1.7634 <s> SIX 0.0000
-1.7634 <s> SIX-PEOPLE-PLEASE 0.0000
-1.7634 <s> SOUP 0.0000
-1.7634 <s> SPAGHETTI 0.0000
-1.7634 <s> THREE 0.0000
-1.7634 <s> THREE-PEOPLE-PLEASE 0.0000
-1.7634 <s> TWO 0.0000
-1.7634 <s> TWO-PEOPLE-PLEASE 0.0000
-1.7634 <s> YES 0.0000
-1.7634 <s> YES-PLEASE 0.0000
-0.3010 ALMOST </s> -0.3010
-0.3010 CANCEL </s> -0.3010
-0.3010 CHOCOLATE-HAZELNUT </s> -0.3010
-0.3010 CREME-BRULEE </s> -0.3010
-0.3010 CREOLE-REMOULADE </s> -0.3010
-0.3010 DARK-ROUX </s> -0.3010
-0.3010 FIVE </s> -0.3010
-0.3010 FIVE-PEOPLE-PLEASE </s> -0.3010
-0.3010 FOUR </s> -0.3010
-0.3010 FOUR-PEOPLE-PLEASE </s> -0.3010
-0.3010 HAMBURGER </s> -0.3010
-0.3010 NO </s> -0.3010
-0.3010 NO-THANK-YOU </s> -0.3010
-0.3010 NOT-YET </s> -0.3010
-0.3010 ONE </s> -0.3010
-0.3010 ONE-PERSON-PLEASE </s> -0.3010
-0.3010 OTHER </s> -0.3010
-0.3010 SALAD </s> -0.3010
-0.3010 SANDWICH </s> -0.3010
-0.3010 SIX </s> -0.3010
-0.3010 SIX-PEOPLE-PLEASE </s> -0.3010
-0.3010 SOUP </s> -0.3010
-0.3010 SPAGHETTI </s> -0.3010
-0.3010 THREE </s> -0.3010
-0.3010 THREE-PEOPLE-PLEASE </s> -0.3010
-0.3010 TWO </s> -0.3010
-0.3010 TWO-PEOPLE-PLEASE </s> -0.3010
-0.3010 YES </s> -0.3010
-0.3010 YES-PLEASE </s> -0.3010

\3-grams:
-0.3010 <s> ALMOST </s>
-0.3010 <s> CANCEL </s>
-0.3010 <s> CHOCOLATE-HAZELNUT </s>
-0.3010 <s> CREME-BRULEE </s>
-0.3010 <s> CREOLE-REMOULADE </s>
-0.3010 <s> DARK-ROUX </s>
-0.3010 <s> FIVE </s>
-0.3010 <s> FIVE-PEOPLE-PLEASE </s>
-0.3010 <s> FOUR </s>
-0.3010 <s> FOUR-PEOPLE-PLEASE </s>
-0.3010 <s> HAMBURGER </s>
-0.3010 <s> NO </s>
-0.3010 <s> NO-THANK-YOU </s>
-0.3010 <s> NOT-YET </s>
-0.3010 <s> ONE </s>
-0.3010 <s> ONE-PERSON-PLEASE </s>
-0.3010 <s> OTHER </s>
-0.3010 <s> SALAD </s>
-0.3010 <s> SANDWICH </s>
-0.3010 <s> SIX </s>
-0.3010 <s> SIX-PEOPLE-PLEASE </s>
-0.3010 <s> SOUP </s>
-0.3010 <s> SPAGHETTI </s>
-0.3010 <s> THREE </s>
-0.3010 <s> THREE-PEOPLE-PLEASE </s>
-0.3010 <s> TWO </s>
-0.3010 <s> TWO-PEOPLE-PLEASE </s>
-0.3010 <s> YES </s>
-0.3010 <s> YES-PLEASE </s>

\end\
