Language model created by QuickLM on Wed Jul 22 18:43:47 EDT 2015
Copyright (c) 1996-2010 Carnegie Mellon University and Alexander I. Rudnicky

The model is in standard ARPA format, designed by Doug Paul while he was at MITRE.

The code that was used to produce this language model is available in Open Source.
Please visit http://www.speech.cs.cmu.edu/tools/ for more information

The (fixed) discount mass is 0.5. The backoffs are computed using the ratio method.
This model based on a corpus of 19 sentences and 21 words

\data\
ngram 1=21
ngram 2=38
ngram 3=19

\1-grams:
-0.7782 </s> -0.3010
-0.7782 <s> -0.2218
-2.0569 ALMOST -0.2218
-2.0569 CIRCLE -0.2218
-2.0569 FIVE -0.2218
-2.0569 FIVE-PEOPLE-PLEASE -0.2218
-2.0569 FOUR -0.2218
-2.0569 FOUR-PEOPLE-PLEASE -0.2218
-2.0569 NO -0.2218
-2.0569 NO-THANK-YOU -0.2218
-2.0569 ONE -0.2218
-2.0569 ONE-PERSON-PLEASE -0.2218
-2.0569 SIX -0.2218
-2.0569 SIX-PEOPLE-PLEASE -0.2218
-2.0569 SQUARE -0.2218
-2.0569 THREE -0.2218
-2.0569 THREE-PEOPLE-PLEASE -0.2218
-2.0569 TWO -0.2218
-2.0569 TWO-PEOPLE-PLEASE -0.2218
-2.0569 YES -0.2218
-2.0569 YES-PLEASE -0.2218

\2-grams:
-1.5798 <s> ALMOST 0.0000
-1.5798 <s> CIRCLE 0.0000
-1.5798 <s> FIVE 0.0000
-1.5798 <s> FIVE-PEOPLE-PLEASE 0.0000
-1.5798 <s> FOUR 0.0000
-1.5798 <s> FOUR-PEOPLE-PLEASE 0.0000
-1.5798 <s> NO 0.0000
-1.5798 <s> NO-THANK-YOU 0.0000
-1.5798 <s> ONE 0.0000
-1.5798 <s> ONE-PERSON-PLEASE 0.0000
-1.5798 <s> SIX 0.0000
-1.5798 <s> SIX-PEOPLE-PLEASE 0.0000
-1.5798 <s> SQUARE 0.0000
-1.5798 <s> THREE 0.0000
-1.5798 <s> THREE-PEOPLE-PLEASE 0.0000
-1.5798 <s> TWO 0.0000
-1.5798 <s> TWO-PEOPLE-PLEASE 0.0000
-1.5798 <s> YES 0.0000
-1.5798 <s> YES-PLEASE 0.0000
-0.3010 ALMOST </s> -0.3010
-0.3010 CIRCLE </s> -0.3010
-0.3010 FIVE </s> -0.3010
-0.3010 FIVE-PEOPLE-PLEASE </s> -0.3010
-0.3010 FOUR </s> -0.3010
-0.3010 FOUR-PEOPLE-PLEASE </s> -0.3010
-0.3010 NO </s> -0.3010
-0.3010 NO-THANK-YOU </s> -0.3010
-0.3010 ONE </s> -0.3010
-0.3010 ONE-PERSON-PLEASE </s> -0.3010
-0.3010 SIX </s> -0.3010
-0.3010 SIX-PEOPLE-PLEASE </s> -0.3010
-0.3010 SQUARE </s> -0.3010
-0.3010 THREE </s> -0.3010
-0.3010 THREE-PEOPLE-PLEASE </s> -0.3010
-0.3010 TWO </s> -0.3010
-0.3010 TWO-PEOPLE-PLEASE </s> -0.3010
-0.3010 YES </s> -0.3010
-0.3010 YES-PLEASE </s> -0.3010

\3-grams:
-0.3010 <s> ALMOST </s>
-0.3010 <s> CIRCLE </s>
-0.3010 <s> FIVE </s>
-0.3010 <s> FIVE-PEOPLE-PLEASE </s>
-0.3010 <s> FOUR </s>
-0.3010 <s> FOUR-PEOPLE-PLEASE </s>
-0.3010 <s> NO </s>
-0.3010 <s> NO-THANK-YOU </s>
-0.3010 <s> ONE </s>
-0.3010 <s> ONE-PERSON-PLEASE </s>
-0.3010 <s> SIX </s>
-0.3010 <s> SIX-PEOPLE-PLEASE </s>
-0.3010 <s> SQUARE </s>
-0.3010 <s> THREE </s>
-0.3010 <s> THREE-PEOPLE-PLEASE </s>
-0.3010 <s> TWO </s>
-0.3010 <s> TWO-PEOPLE-PLEASE </s>
-0.3010 <s> YES </s>
-0.3010 <s> YES-PLEASE </s>

\end\
